<?xml version="1.0"?>
<opencv_storage>
    <cascade>
        <stageType>BOOST</stageType>
        <featureType>HAAR</featureType>
        <height>24</height>
        <width>24</width>
        <stageParams>
            <boostType>GAB</boostType>
            <stageType>BOOST</stageType>
            <featureType>HAAR</featureType>
            <minHitRate>9.9500000476837158e-01</minHitRate>
            <maxFalseAlarm>5.0000000000000000e-01</maxFalseAlarm>
            <weightTrimRate>9.4999998807907104e-01</weightTrimRate>
            <maxDepth>1</maxDepth>
            <maxWeakCount>100</maxWeakCount></stageParams>
        <featureParams>
            <maxCatCount>0</maxCatCount>
            <featSize>1</featSize>
            <mode>BASIC</mode></featureParams>
        <stageNum>20</stageNum>
        <stages>
            <!-- stage 0 -->
            <_>
                <maxWeakCount>6</maxWeakCount>
                <stageThreshold>-2.0537436008453369e+00</stageThreshold>
                <weakClassifiers>
                    <_>
                        <internalNodes>
                            0 -1 22 -6.1291143298149109e-02</internalNodes>
                        <leafValues>
                            4.3333333730697632e-01 -8.7774592638015747e-01</leafValues></_>
                    <_>
                        <internalNodes>
                            0 -1 70 -3.8707144558429718e-02</internalNodes>
                        <leafValues>
                            4.0733373165130615e-01 -7.1528673171997070e-01</leafValues></_>
                    <_>
                        <internalNodes>
                            0 -1 69 -3.8987115025520325e-02</internalNodes>
                        <leafValues>
                            7.7439028024673462e-01 -3.5737696290016174e-01</leafValues></_>
                    <_>
                        <internalNodes>
                            0 -1 63 1.9004539353772998e-03</internalNodes>
                        <leafValues>
                            -3.2172444462776184e-01 6.8637204170227051e-01</leafValues></_>
                    <_>
                        <internalNodes>
                            0 -1 104 -6.7031905055046082e-02</internalNodes>
                        <leafValues>
                            6.8984174728393555e-01 -2.8057453036308289e-01</leafValues></_>
                    <_>
                        <internalNodes>
                            0 -1 34 2.2331112995743752e-03</internalNodes>
                        <leafValues>
                            -4.1861423850059509e-01 4.9896508455276489e-01</leafValues></_></weakClassifiers></_>
            <!-- stage 1 -->
            <_>
                <maxWeakCount>5</maxWeakCount>
                <stageThreshold>-1.4917033910751343e+00</stageThreshold>
                <weakClassifiers>
                    <_>
                        <internalNodes>
                            0 -1 119 1.6270701587200165e-01</internalNodes>
                        <leafValues>
                            -8.6437439918518066e-01 2.0000000298023224e-01</leafValues></_>
                    <_>
                        <internalNodes>
                            0 -1 12 -3.5821169614791870e-02</internalNodes>
                        <leafValues>
                            3.4871017932891846e-01 -6.2932580709457397e-01</leafValues></_>
                    <_>
                        <internalNodes>
                            0 -1 50 2.9304020106792450e-02</internalNodes>
                        <leafValues>
                            -3.0539911985397339e-01 7.1196413040161133e-01</leafValues></_>
                    <_>
                        <internalNodes>
                            0 -1 132 -1.2924591079354286e-02</internalNodes>
                        <leafValues>
                            6.3651680946350098e-01 -2.5912407040596008e-01</leafValues></_>
                    <_>
                        <internalNodes>
                            0 -1 110 -3.6317165940999985e-02</internalNodes>
                        <leafValues>
                            5.6652003526687622e-01 -2.9439154267311096e-01</leafValues></_></weakClassifiers></_>
            <!-- stage 2 -->
            <_>
                <maxWeakCount>6</maxWeakCount>
                <stageThreshold>-1.8665430545806885e+00</stageThreshold>
                <weakClassifiers>
                    <_>
                        <internalNodes>
                            0 -1 45 -6.6320613026618958e-02</internalNodes>
                        <leafValues>
                            -2.2627736628055573e-01 -8.8865977525711060e-01</leafValues></_>
                    <_>
                        <internalNodes>
                            0 -1 24 -3.7667062133550644e-02</internalNodes>
                        <leafValues>
                            1.3576912879943848e-01 -6.3509517908096313e-01</leafValues></_>
                    <_>
                        <internalNodes>
                            0 -1 77 -2.3906938731670380e-02</internalNodes>
                        <leafValues>
                            4.7378230094909668e-01 -4.3624365329742432e-01</leafValues></_>
                    <_>
                        <internalNodes>
                            0 -1 146 2.9828009428456426e-04</internalNodes>
                        <leafValues>
                            2.1142013370990753e-01 -8.1738281250000000e-01</leafValues></_>
                    <_>
                        <internalNodes>
                            0 -1 9 -5.1615275442600250e-02</internalNodes>
                        <leafValues>
                            6.1535358428955078e-01 -2.6900497078895569e-01</leafValues></_>
                    <_>
                        <internalNodes>
                            0 -1 151 -7.2088977321982384e-03</internalNodes>
                        <leafValues>
                            4.0897902846336365e-01 -3.5363739728927612e-01</leafValues></_></weakClassifiers></_>
            <!-- stage 3 -->
            <_>
                <maxWeakCount>7</maxWeakCount>
                <stageThreshold>-1.6934096813201904e+00</stageThreshold>
                <weakClassifiers>
                    <_>
                        <internalNodes>
                            0 -1 153 2.9559139162302017e-02</internalNodes>
                        <leafValues>
                            -8.5451018810272217e-01 -1.5789473056793213e-01</leafValues></_>
                    <_>
                        <internalNodes>
                            0 -1 35 -3.6248069256544113e-02</internalNodes>
                        <leafValues>
                            1.7241667211055756e-01 -5.6631749868392944e-01</leafValues></_>
                    <_>
                        <internalNodes>
                            0 -1 26 -1.6964453971013427e-03</internalNodes>
                        <leafValues>
                            -9.7467315196990967e-01 9.4796203076839447e-02</leafValues></_>
                    <_>
                        <internalNodes>
                            0 -1 161 -3.4381783916614950e-04</internalNodes>
                        <leafValues>
                            -7.7791148424148560e-01 1.5604899823665619e-01</leafValues></_>
                    <_>
                        <internalNodes>
                            0 -1 46 -8.0481126904487610e-02</internalNodes>
                        <leafValues>
                            4.8666736483573914e-01 -3.1975367665290833e-01</leafValues></_>
                    <_>
                        <internalNodes>
                            0 -1 90 4.8309948295354843e-02</internalNodes>
                        <leafValues>
                            -3.7334969639778137e-01 4.1411602497100830e-01</leafValues></_>
                    <_>
                        <internalNodes>
                            0 -1 150 3.9802052197046578e-04</internalNodes>
                        <leafValues>
                            1.6967612504959106e-01 -7.9250431060791016e-01</leafValues></_></weakClassifiers></_>
            <!-- stage 4 -->
            <_>
                <maxWeakCount>7</maxWeakCount>
                <stageThreshold>-1.8349035978317261e+00</stageThreshold>
                <weakClassifiers>
                    <_>
                        <internalNodes>
                            0 -1 45 -6.6366359591484070e-02</internalNodes>
                        <leafValues>
                            -2.2058823704719543e-01 -8.8877445459365845e-01</leafValues></_>
                    <_>
                        <internalNodes>
                            0 -1 74 8.2819396629929543e-04</internalNodes>
                        <leafValues>
                            -6.4021033048629761e-01 1.9180411100387573e-01</leafValues></_>
                    <_>
                        <internalNodes>
                            0 -1 140 -1.0312912054359913e-03</internalNodes>
                        <leafValues>
                            4.1605827212333679e-01 -4.5084074139595032e-01</leafValues></_>
                    <_>
                        <internalNodes>
                            0 -1 95 3.7223540712147951e-03</internalNodes>
                        <leafValues>
                            -3.8549026846885681e-01 4.5122876763343811e-01</leafValues></_>
                    <_>
                        <internalNodes>
                            0 -1 29 -2.5356668047606945e-03</internalNodes>
                        <leafValues>
                            4.5090511441230774e-01 -3.4166216850280762e-01</leafValues></_>
                    <_>
                        <internalNodes>
                            0 -1 149 -9.1926119057461619e-04</internalNodes>
                        <leafValues>
                            4.8198363184928894e-01 -3.5793852806091309e-01</leafValues></_>
                    <_>
                        <internalNodes>
                            0 -1 60 -3.2849628041731194e-05</internalNodes>
                        <leafValues>
                            4.3744567036628723e-01 -3.3650660514831543e-01</leafValues></_></weakClassifiers></_>
            <!-- stage 5 -->
            <_>
                <maxWeakCount>11</maxWeakCount>
                <stageThreshold>-1.7313038110733032e+00</stageThreshold>
                <weakClassifiers>
                    <_>
                        <internalNodes>
                            0 -1 51 -3.0845778062939644e-02</internalNodes>
                        <leafValues>
                            1.8518517911434174e-01 -8.3148145675659180e-01</leafValues></_>
                    <_>
                        <internalNodes>
                            0 -1 103 -4.3876018375158310e-02</internalNodes>
                        <leafValues>
                            4.4162768870592117e-02 -7.0211714506149292e-01</leafValues></_>
                    <_>
                        <internalNodes>
                            0 -1 19 -5.0500132143497467e-02</internalNodes>
                        <leafValues>
                            7.0293605327606201e-01 -2.2432580590248108e-01</leafValues></_>
                    <_>
                        <internalNodes>
                            0 -1 80 -3.7125865928828716e-03</internalNodes>
                        <leafValues>
                            4.5333689451217651e-01 -2.5890329480171204e-01</leafValues></_>
                    <_>
                        <internalNodes>
                            0 -1 147 4.9786623567342758e-03</internalNodes>
                        <leafValues>
                            -2.9703480005264282e-01 4.3700253963470459e-01</leafValues></_>
                    <_>
                        <internalNodes>
                            0 -1 131 7.2921620449051261e-04</internalNodes>
                        <leafValues>
                            -3.3964762091636658e-01 3.4988665580749512e-01</leafValues></_>
                    <_>
                        <internalNodes>
                            0 -1 142 -5.1649822853505611e-04</internalNodes>
                        <leafValues>
                            4.6499580144882202e-01 -2.3813655972480774e-01</leafValues></_>
                    <_>
                        <internalNodes>
                            0 -1 105 -1.5051942318677902e-03</internalNodes>
                        <leafValues>
                            3.7747812271118164e-01 -3.1185889244079590e-01</leafValues></_>
                    <_>
                        <internalNodes>
                            0 -1 39 -5.8438209816813469e-03</internalNodes>
                        <leafValues>
                            5.1961350440979004e-01 -2.3588201403617859e-01</leafValues></_>
                    <_>
                        <internalNodes>
                            0 -1 23 3.2351657748222351e-02</internalNodes>
                        <leafValues>
                            -1.9014190137386322e-01 6.6394424438476563e-01</leafValues></_>
                    <_>
                        <internalNodes>
                            0 -1 85 -4.0995495510287583e-04</internalNodes>
                        <leafValues>
                            4.8285317420959473e-01 -2.2949053347110748e-01</leafValues></_></weakClassifiers></_>
            <!-- stage 6 -->
            <_>
                <maxWeakCount>10</maxWeakCount>
                <stageThreshold>-1.7447922229766846e+00</stageThreshold>
                <weakClassifiers>
                    <_>
                        <internalNodes>
                            0 -1 75 -7.2986520826816559e-02</internalNodes>
                        <leafValues>
                            7.7777779102325439e-01 -8.1967210769653320e-01</leafValues></_>
                    <_>
                        <internalNodes>
                            0 -1 45 -6.2660686671733856e-02</internalNodes>
                        <leafValues>
                            1.2268254160881042e-01 -5.2868843078613281e-01</leafValues></_>
                    <_>
                        <internalNodes>
                            0 -1 27 -1.6916893422603607e-02</internalNodes>
                        <leafValues>
                            3.1691506505012512e-01 -2.9117855429649353e-01</leafValues></_>
                    <_>
                        <internalNodes>
                            0 -1 1 1.2110437965020537e-03</internalNodes>
                        <leafValues>
                            1.5130794048309326e-01 -6.1279362440109253e-01</leafValues></_>
                    <_>
                        <internalNodes>
                            0 -1 116 7.1668642340227962e-04</internalNodes>
                        <leafValues>
                            -2.5589179992675781e-01 3.6076489090919495e-01</leafValues></_>
                    <_>
                        <internalNodes>
                            0 -1 65 9.6409616526216269e-04</internalNodes>
                        <leafValues>
                            -2.3060968518257141e-01 4.1254156827926636e-01</leafValues></_>
                    <_>
                        <internalNodes>
                            0 -1 137 2.2728000767529011e-03</internalNodes>
                        <leafValues>
                            1.7517590522766113e-01 -5.8852702379226685e-01</leafValues></_>
                    <_>
                        <internalNodes>
                            0 -1 156 -1.7979983240365982e-03</internalNodes>
                        <leafValues>
                            -8.2306569814682007e-01 1.0537871718406677e-01</leafValues></_>
                    <_>
                        <internalNodes>
                            0 -1 33 9.9430643022060394e-03</internalNodes>
                        <leafValues>
                            -1.9784402847290039e-01 4.9651801586151123e-01</leafValues></_>
                    <_>
                        <internalNodes>
                            0 -1 13 -6.3544549047946930e-02</internalNodes>
                        <leafValues>
                            4.6311476826667786e-01 -1.8413367867469788e-01</leafValues></_></weakClassifiers></_>
            <!-- stage 7 -->
            <_>
                <maxWeakCount>8</maxWeakCount>
                <stageThreshold>-1.5734856128692627e+00</stageThreshold>
                <weakClassifiers>
                    <_>
                        <internalNodes>
                            0 -1 99 3.5440176725387573e-02</internalNodes>
                        <leafValues>
                            -8.3380019664764404e-01 -4.6674903525500966e-17</leafValues></_>
                    <_>
                        <internalNodes>
                            0 -1 87 -2.4618282914161682e-02</internalNodes>
                        <leafValues>
                            -9.2255445197224617e-03 -5.8474034070968628e-01</leafValues></_>
                    <_>
                        <internalNodes>
                            0 -1 42 -3.7828370928764343e-02</internalNodes>
                        <leafValues>
                            1.9251991808414459e-01 -4.7398984432220459e-01</leafValues></_>
                    <_>
                        <internalNodes>
                            0 -1 160 7.6350948074832559e-04</internalNodes>
                        <leafValues>
                            1.1878962069749832e-01 -7.8819543123245239e-01</leafValues></_>
                    <_>
                        <internalNodes>
                            0 -1 78 2.3560723639093339e-04</internalNodes>
                        <leafValues>
                            -2.7440345287322998e-01 3.5042101144790649e-01</leafValues></_>
                    <_>
                        <internalNodes>
                            0 -1 124 -8.5011561168357730e-05</internalNodes>
                        <leafValues>
                            3.1882447004318237e-01 -3.2667434215545654e-01</leafValues></_>
                    <_>
                        <internalNodes>
                            0 -1 57 3.5888159181922674e-03</internalNodes>
                        <leafValues>
                            -2.5114157795906067e-01 3.3995267748832703e-01</leafValues></_>
                    <_>
                        <internalNodes>
                            0 -1 112 -1.2301969341933727e-02</internalNodes>
                        <leafValues>
                            6.3915079832077026e-01 -1.4786471426486969e-01</leafValues></_></weakClassifiers></_>
            <!-- stage 8 -->
            <_>
                <maxWeakCount>7</maxWeakCount>
                <stageThreshold>-1.4618680477142334e+00</stageThreshold>
                <weakClassifiers>
                    <_>
                        <internalNodes>
                            0 -1 73 7.3587276041507721e-02</internalNodes>
                        <leafValues>
                            -8.2704693078994751e-01 3.0000001192092896e-01</leafValues></_>
                    <_>
                        <internalNodes>
                            0 -1 139 5.6268740445375443e-04</internalNodes>
                        <leafValues>
                            -5.4606282711029053e-01 9.8504528403282166e-02</leafValues></_>
                    <_>
                        <internalNodes>
                            0 -1 20 -4.4677389087155461e-04</internalNodes>
                        <leafValues>
                            -7.5452852249145508e-01 8.5247643291950226e-02</leafValues></_>
                    <_>
                        <internalNodes>
                            0 -1 36 -7.2626918554306030e-03</internalNodes>
                        <leafValues>
                            4.5839157700538635e-01 -1.7732936143875122e-01</leafValues></_>
                    <_>
                        <internalNodes>
                            0 -1 138 5.6738150306046009e-04</internalNodes>
                        <leafValues>
                            -2.2926104068756104e-01 3.7840056419372559e-01</leafValues></_>
                    <_>
                        <internalNodes>
                            0 -1 18 -5.6799023877829313e-04</internalNodes>
                        <leafValues>
                            -8.1111454963684082e-01 1.3104112446308136e-01</leafValues></_>
                    <_>
                        <internalNodes>
                            0 -1 125 7.4116489849984646e-04</internalNodes>
                        <leafValues>
                            -2.8301581740379333e-01 2.9675218462944031e-01</leafValues></_></weakClassifiers></_>
            <!-- stage 9 -->
            <_>
                <maxWeakCount>9</maxWeakCount>
                <stageThreshold>-1.6896971464157104e+00</stageThreshold>
                <weakClassifiers>
                    <_>
                        <internalNodes>
                            0 -1 100 4.8455286771059036e-02</internalNodes>
                        <leafValues>
                            -8.3551400899887085e-01 2.7027027681469917e-02</leafValues></_>
                    <_>
                        <internalNodes>
                            0 -1 115 -3.3142978791147470e-03</internalNodes>
                        <leafValues>
                            2.4733569473028183e-02 -5.0449293851852417e-01</leafValues></_>
                    <_>
                        <internalNodes>
                            0 -1 28 8.9684724807739258e-03</internalNodes>
                        <leafValues>
                            8.9228950440883636e-02 -7.0427805185317993e-01</leafValues></_>
                    <_>
                        <internalNodes>
                            0 -1 54 6.0364594683051109e-03</internalNodes>
                        <leafValues>
                            2.2546815872192383e-01 -5.0393027067184448e-01</leafValues></_>
                    <_>
                        <internalNodes>
                            0 -1 82 4.2556646803859621e-05</internalNodes>
                        <leafValues>
                            -3.7087976932525635e-01 2.1023982763290405e-01</leafValues></_>
                    <_>
                        <internalNodes>
                            0 -1 143 2.3613572120666504e-03</internalNodes>
                        <leafValues>
                            1.1345782876014709e-01 -8.9540952444076538e-01</leafValues></_>
                    <_>
                        <internalNodes>
                            0 -1 135 3.3417046070098877e-02</internalNodes>
                        <leafValues>
                            -2.1975670754909515e-01 4.2957940697669983e-01</leafValues></_>
                    <_>
                        <internalNodes>
                            0 -1 79 1.4033229090273380e-03</internalNodes>
                        <leafValues>
                            -2.0849919319152832e-01 4.1625687479972839e-01</leafValues></_>
                    <_>
                        <internalNodes>
                            0 -1 8 -8.9036655845120549e-04</internalNodes>
                        <leafValues>
                            -8.6799657344818115e-01 1.2593291699886322e-01</leafValues></_></weakClassifiers></_>
            <!-- stage 10 -->
            <_>
                <maxWeakCount>9</maxWeakCount>
                <stageThreshold>-1.4683066606521606e+00</stageThreshold>
                <weakClassifiers>
                    <_>
                        <internalNodes>
                            0 -1 98 -1.9883278757333755e-02</internalNodes>
                        <leafValues>
                            6.3636362552642822e-01 -8.2116788625717163e-01</leafValues></_>
                    <_>
                        <internalNodes>
                            0 -1 21 1.2627301737666130e-02</internalNodes>
                        <leafValues>
                            -4.9298933148384094e-01 6.2432572245597839e-02</leafValues></_>
                    <_>
                        <internalNodes>
                            0 -1 25 -2.6965731754899025e-02</internalNodes>
                        <leafValues>
                            4.4555878639221191e-01 -1.9575385749340057e-01</leafValues></_>
                    <_>
                        <internalNodes>
                            0 -1 5 9.9778342992067337e-03</internalNodes>
                        <leafValues>
                            -2.2315111756324768e-01 3.3518937230110168e-01</leafValues></_>
                    <_>
                        <internalNodes>
                            0 -1 7 6.7127950023859739e-04</internalNodes>
                        <leafValues>
                            1.0705035924911499e-01 -7.0747333765029907e-01</leafValues></_>
                    <_>
                        <internalNodes>
                            0 -1 37 -1.6929113771766424e-03</internalNodes>
                        <leafValues>
                            2.9739099740982056e-01 -2.5156962871551514e-01</leafValues></_>
                    <_>
                        <internalNodes>
                            0 -1 102 9.4255658041220158e-05</internalNodes>
                        <leafValues>
                            -2.9381680488586426e-01 3.3882394433021545e-01</leafValues></_>
                    <_>
                        <internalNodes>
                            0 -1 52 3.0286732362583280e-04</internalNodes>
                        <leafValues>
                            -3.2202076911926270e-01 2.3117817938327789e-01</leafValues></_>
                    <_>
                        <internalNodes>
                            0 -1 6 2.3744909558445215e-03</internalNodes>
                        <leafValues>
                            9.9694289267063141e-02 -1.</leafValues></_></weakClassifiers></_>
            <!-- stage 11 -->
            <_>
                <maxWeakCount>11</maxWeakCount>
                <stageThreshold>-1.5996434688568115e+00</stageThreshold>
                <weakClassifiers>
                    <_>
                        <internalNodes>
                            0 -1 67 -5.6505441665649414e-02</internalNodes>
                        <leafValues>
                            7.5000000000000000e-01 -8.1801635026931763e-01</leafValues></_>
                    <_>
                        <internalNodes>
                            0 -1 109 -1.1167585849761963e-01</internalNodes>
                        <leafValues>
                            2.4626965820789337e-01 -4.2396381497383118e-01</leafValues></_>
                    <_>
                        <internalNodes>
                            0 -1 40 -2.4410313926637173e-03</internalNodes>
                        <leafValues>
                            -5.6528425216674805e-01 1.0459118336439133e-01</leafValues></_>
                    <_>
                        <internalNodes>
                            0 -1 141 1.0545647237449884e-03</internalNodes>
                        <leafValues>
                            -2.4208191037178040e-01 3.1110459566116333e-01</leafValues></_>
                    <_>
                        <internalNodes>
                            0 -1 44 -5.3813040256500244e-02</internalNodes>
                        <leafValues>
                            -7.5496393442153931e-01 1.3849517703056335e-01</leafValues></_>
                    <_>
                        <internalNodes>
                            0 -1 89 3.1487382948398590e-03</internalNodes>
                        <leafValues>
                            6.7290440201759338e-02 -8.4065908193588257e-01</leafValues></_>
                    <_>
                        <internalNodes>
                            0 -1 15 -1.1020186357200146e-03</internalNodes>
                        <leafValues>
                            3.5050907731056213e-01 -2.4260590970516205e-01</leafValues></_>
                    <_>
                        <internalNodes>
                            0 -1 2 1.5583720523864031e-03</internalNodes>
                        <leafValues>
                            1.0285064578056335e-01 -7.8093957901000977e-01</leafValues></_>
                    <_>
                        <internalNodes>
                            0 -1 48 3.3388353884220123e-02</internalNodes>
                        <leafValues>
                            -2.1408189833164215e-01 3.9002987742424011e-01</leafValues></_>
                    <_>
                        <internalNodes>
                            0 -1 84 1.0484214127063751e-01</internalNodes>
                        <leafValues>
                            -2.2235018014907837e-01 4.2288440465927124e-01</leafValues></_>
                    <_>
                        <internalNodes>
                            0 -1 159 -1.3302457227837294e-04</internalNodes>
                        <leafValues>
                            -5.6962382793426514e-01 1.5022923052310944e-01</leafValues></_></weakClassifiers></_>
            <!-- stage 12 -->
            <_>
                <maxWeakCount>10</maxWeakCount>
                <stageThreshold>-1.5801163911819458e+00</stageThreshold>
                <weakClassifiers>
                    <_>
                        <internalNodes>
                            0 -1 58 -3.6052331328392029e-02</internalNodes>
                        <leafValues>
                            4.2857143282890320e-01 -8.2250684499740601e-01</leafValues></_>
                    <_>
                        <internalNodes>
                            0 -1 3 5.2927967160940170e-02</internalNodes>
                        <leafValues>
                            -4.6228429675102234e-01 1.3522900640964508e-01</leafValues></_>
                    <_>
                        <internalNodes>
                            0 -1 152 1.3160482048988342e-02</internalNodes>
                        <leafValues>
                            -2.0163536071777344e-01 4.3725124001502991e-01</leafValues></_>
                    <_>
                        <internalNodes>
                            0 -1 55 3.2695356756448746e-02</internalNodes>
                        <leafValues>
                            1.1888084560632706e-01 -7.9290038347244263e-01</leafValues></_>
                    <_>
                        <internalNodes>
                            0 -1 41 1.1451682075858116e-02</internalNodes>
                        <leafValues>
                            -1.4848914742469788e-01 4.6744498610496521e-01</leafValues></_>
                    <_>
                        <internalNodes>
                            0 -1 72 1.8168834503740072e-03</internalNodes>
                        <leafValues>
                            1.7072096467018127e-01 -5.0385105609893799e-01</leafValues></_>
                    <_>
                        <internalNodes>
                            0 -1 108 -1.5289082657545805e-03</internalNodes>
                        <leafValues>
                            3.7768474221229553e-01 -2.4822156131267548e-01</leafValues></_>
                    <_>
                        <internalNodes>
                            0 -1 81 -9.1143734753131866e-03</internalNodes>
                        <leafValues>
                            5.1391148567199707e-01 -1.6219483315944672e-01</leafValues></_>
                    <_>
                        <internalNodes>
                            0 -1 134 7.2396527975797653e-03</internalNodes>
                        <leafValues>
                            1.3060899078845978e-01 -7.2855472564697266e-01</leafValues></_>
                    <_>
                        <internalNodes>
                            0 -1 136 -4.7423273324966431e-02</internalNodes>
                        <leafValues>
                            -8.4051924943923950e-01 8.0690309405326843e-02</leafValues></_></weakClassifiers></_>
            <!-- stage 13 -->
            <_>
                <maxWeakCount>8</maxWeakCount>
                <stageThreshold>-1.3509320020675659e+00</stageThreshold>
                <weakClassifiers>
                    <_>
                        <internalNodes>
                            0 -1 101 4.4445559382438660e-02</internalNodes>
                        <leafValues>
                            -8.1983619928359985e-01 1.</leafValues></_>
                    <_>
                        <internalNodes>
                            0 -1 107 -1.1747495736926794e-03</internalNodes>
                        <leafValues>
                            1.4741732180118561e-01 -4.7648409008979797e-01</leafValues></_>
                    <_>
                        <internalNodes>
                            0 -1 127 -4.5419141650199890e-02</internalNodes>
                        <leafValues>
                            -9.7497594356536865e-01 6.3398733735084534e-02</leafValues></_>
                    <_>
                        <internalNodes>
                            0 -1 120 -5.3012400865554810e-02</internalNodes>
                        <leafValues>
                            -1. 8.1682316958904266e-02</leafValues></_>
                    <_>
                        <internalNodes>
                            0 -1 123 -5.2681304514408112e-03</internalNodes>
                        <leafValues>
                            2.9772442579269409e-01 -2.9283159971237183e-01</leafValues></_>
                    <_>
                        <internalNodes>
                            0 -1 129 -1.0860811918973923e-02</internalNodes>
                        <leafValues>
                            5.3508758544921875e-01 -1.6837243735790253e-01</leafValues></_>
                    <_>
                        <internalNodes>
                            0 -1 130 2.6090919971466064e-02</internalNodes>
                        <leafValues>
                            -1.9377677142620087e-01 5.5830407142639160e-01</leafValues></_>
                    <_>
                        <internalNodes>
                            0 -1 93 2.5782119482755661e-02</internalNodes>
                        <leafValues>
                            -1.3526798784732819e-01 7.1139681339263916e-01</leafValues></_></weakClassifiers></_>
            <!-- stage 14 -->
            <_>
                <maxWeakCount>7</maxWeakCount>
                <stageThreshold>-1.4501219987869263e+00</stageThreshold>
                <weakClassifiers>
                    <_>
                        <internalNodes>
                            0 -1 91 4.0654022246599197e-02</internalNodes>
                        <leafValues>
                            -8.3041477203369141e-01 3.6363637447357178e-01</leafValues></_>
                    <_>
                        <internalNodes>
                            0 -1 114 -1.1652753455564380e-03</internalNodes>
                        <leafValues>
                            2.0231962203979492e-01 -4.5990404486656189e-01</leafValues></_>
                    <_>
                        <internalNodes>
                            0 -1 83 -5.1330402493476868e-04</internalNodes>
                        <leafValues>
                            3.1629133224487305e-01 -2.6681432127952576e-01</leafValues></_>
                    <_>
                        <internalNodes>
                            0 -1 117 2.8522142674773932e-03</internalNodes>
                        <leafValues>
                            1.0881859064102173e-01 -8.0281704664230347e-01</leafValues></_>
                    <_>
                        <internalNodes>
                            0 -1 88 -9.8880997393280268e-04</internalNodes>
                        <leafValues>
                            3.0643665790557861e-01 -2.8724732995033264e-01</leafValues></_>
                    <_>
                        <internalNodes>
                            0 -1 68 -4.6102898195385933e-03</internalNodes>
                        <leafValues>
                            5.9285980463027954e-01 -1.8542261421680450e-01</leafValues></_>
                    <_>
                        <internalNodes>
                            0 -1 158 -5.9743557358160615e-04</internalNodes>
                        <leafValues>
                            -6.8785661458969116e-01 1.3716879487037659e-01</leafValues></_></weakClassifiers></_>
            <!-- stage 15 -->
            <_>
                <maxWeakCount>10</maxWeakCount>
                <stageThreshold>-1.8336727619171143e+00</stageThreshold>
                <weakClassifiers>
                    <_>
                        <internalNodes>
                            0 -1 32 4.4161155819892883e-02</internalNodes>
                        <leafValues>
                            -8.1653040647506714e-01 1.</leafValues></_>
                    <_>
                        <internalNodes>
                            0 -1 113 -2.9097255319356918e-02</internalNodes>
                        <leafValues>
                            5.3995269536972046e-01 -3.8742509484291077e-01</leafValues></_>
                    <_>
                        <internalNodes>
                            0 -1 122 4.1321141179651022e-04</internalNodes>
                        <leafValues>
                            -2.6787009835243225e-01 3.4159818291664124e-01</leafValues></_>
                    <_>
                        <internalNodes>
                            0 -1 0 -1.0505530983209610e-02</internalNodes>
                        <leafValues>
                            -5.8201038837432861e-01 1.3428878784179688e-01</leafValues></_>
                    <_>
                        <internalNodes>
                            0 -1 16 3.3168415538966656e-03</internalNodes>
                        <leafValues>
                            -2.2623597085475922e-01 3.6681073904037476e-01</leafValues></_>
                    <_>
                        <internalNodes>
                            0 -1 94 -1.5863440930843353e-03</internalNodes>
                        <leafValues>
                            2.9002213478088379e-01 -2.8077635169029236e-01</leafValues></_>
                    <_>
                        <internalNodes>
                            0 -1 118 1.9814204424619675e-03</internalNodes>
                        <leafValues>
                            -2.1412688493728638e-01 4.0681415796279907e-01</leafValues></_>
                    <_>
                        <internalNodes>
                            0 -1 31 -4.5329954475164413e-02</internalNodes>
                        <leafValues>
                            3.1109654903411865e-01 -2.7809214591979980e-01</leafValues></_>
                    <_>
                        <internalNodes>
                            0 -1 111 9.7039774060249329e-02</internalNodes>
                        <leafValues>
                            1.0311551392078400e-01 -1.</leafValues></_>
                    <_>
                        <internalNodes>
                            0 -1 49 -2.6060850359499454e-03</internalNodes>
                        <leafValues>
                            3.5704514384269714e-01 -2.2096107900142670e-01</leafValues></_></weakClassifiers></_>
            <!-- stage 16 -->
            <_>
                <maxWeakCount>12</maxWeakCount>
                <stageThreshold>-1.5735919475555420e+00</stageThreshold>
                <weakClassifiers>
                    <_>
                        <internalNodes>
                            0 -1 38 -2.3531313985586166e-02</internalNodes>
                        <leafValues>
                            1. -8.1983619928359985e-01</leafValues></_>
                    <_>
                        <internalNodes>
                            0 -1 4 1.3656273949891329e-04</internalNodes>
                        <leafValues>
                            -5.1324295997619629e-01 4.0741343051195145e-02</leafValues></_>
                    <_>
                        <internalNodes>
                            0 -1 76 8.1775002181529999e-03</internalNodes>
                        <leafValues>
                            -2.7515909075737000e-01 3.3687087893486023e-01</leafValues></_>
                    <_>
                        <internalNodes>
                            0 -1 97 -2.4573719128966331e-02</internalNodes>
                        <leafValues>
                            3.2423928380012512e-01 -2.6967278122901917e-01</leafValues></_>
                    <_>
                        <internalNodes>
                            0 -1 92 7.4001280590891838e-03</internalNodes>
                        <leafValues>
                            -1.7978663742542267e-01 4.6382790803909302e-01</leafValues></_>
                    <_>
                        <internalNodes>
                            0 -1 43 -4.7215595841407776e-03</internalNodes>
                        <leafValues>
                            6.8834763765335083e-01 -1.2411609292030334e-01</leafValues></_>
                    <_>
                        <internalNodes>
                            0 -1 11 1.8331158906221390e-02</internalNodes>
                        <leafValues>
                            1.8280529975891113e-01 -7.6148265600204468e-01</leafValues></_>
                    <_>
                        <internalNodes>
                            0 -1 61 -7.3188439011573792e-02</internalNodes>
                        <leafValues>
                            4.9842968583106995e-01 -2.0881858468055725e-01</leafValues></_>
                    <_>
                        <internalNodes>
                            0 -1 145 7.0070209912955761e-03</internalNodes>
                        <leafValues>
                            -1.4927524328231812e-01 5.5334824323654175e-01</leafValues></_>
                    <_>
                        <internalNodes>
                            0 -1 66 -3.4582503139972687e-03</internalNodes>
                        <leafValues>
                            4.9283733963966370e-01 -1.9761601090431213e-01</leafValues></_>
                    <_>
                        <internalNodes>
                            0 -1 30 -2.8810538351535797e-03</internalNodes>
                        <leafValues>
                            3.2708871364593506e-01 -3.1630593538284302e-01</leafValues></_>
                    <_>
                        <internalNodes>
                            0 -1 144 -2.6992551283910871e-04</internalNodes>
                        <leafValues>
                            -6.6524052619934082e-01 1.6726262867450714e-01</leafValues></_></weakClassifiers></_>
            <!-- stage 17 -->
            <_>
                <maxWeakCount>11</maxWeakCount>
                <stageThreshold>-1.4541691541671753e+00</stageThreshold>
                <weakClassifiers>
                    <_>
                        <internalNodes>
                            0 -1 126 -1.9990447908639908e-02</internalNodes>
                        <leafValues>
                            1. -8.2648402452468872e-01</leafValues></_>
                    <_>
                        <internalNodes>
                            0 -1 86 -2.7136299759149551e-03</internalNodes>
                        <leafValues>
                            1.3780213892459869e-01 -5.2910089492797852e-01</leafValues></_>
                    <_>
                        <internalNodes>
                            0 -1 17 1.0344609108869918e-05</internalNodes>
                        <leafValues>
                            2.7970850467681885e-01 -3.5593232512474060e-01</leafValues></_>
                    <_>
                        <internalNodes>
                            0 -1 10 3.1658597436035052e-05</internalNodes>
                        <leafValues>
                            -2.5460088253021240e-01 4.0296524763107300e-01</leafValues></_>
                    <_>
                        <internalNodes>
                            0 -1 121 -3.1740216072648764e-03</internalNodes>
                        <leafValues>
                            4.1632094979286194e-01 -2.7490699291229248e-01</leafValues></_>
                    <_>
                        <internalNodes>
                            0 -1 47 -8.5225794464349747e-04</internalNodes>
                        <leafValues>
                            4.4465759396553040e-01 -2.7478197216987610e-01</leafValues></_>
                    <_>
                        <internalNodes>
                            0 -1 64 -4.9969855695962906e-02</internalNodes>
                        <leafValues>
                            6.0394805669784546e-01 -2.1083369851112366e-01</leafValues></_>
                    <_>
                        <internalNodes>
                            0 -1 14 -4.6248218859545887e-04</internalNodes>
                        <leafValues>
                            -6.6643351316452026e-01 2.0773865282535553e-01</leafValues></_>
                    <_>
                        <internalNodes>
                            0 -1 133 1.3381972908973694e-02</internalNodes>
                        <leafValues>
                            -3.6119914054870605e-01 3.8181665539741516e-01</leafValues></_>
                    <_>
                        <internalNodes>
                            0 -1 59 -5.5074254050850868e-03</internalNodes>
                        <leafValues>
                            5.3868234157562256e-01 -2.2912107408046722e-01</leafValues></_>
                    <_>
                        <internalNodes>
                            0 -1 62 -1.0317428968846798e-03</internalNodes>
                        <leafValues>
                            4.2473140358924866e-01 -3.0505678057670593e-01</leafValues></_></weakClassifiers></_>
            <!-- stage 18 -->
            <_>
                <maxWeakCount>7</maxWeakCount>
                <stageThreshold>-1.7182794809341431e+00</stageThreshold>
                <weakClassifiers>
                    <_>
                        <internalNodes>
                            0 -1 96 2.9105871915817261e-02</internalNodes>
                        <leafValues>
                            -8.4501844644546509e-01 1.</leafValues></_>
                    <_>
                        <internalNodes>
                            0 -1 157 4.7229547053575516e-03</internalNodes>
                        <leafValues>
                            -5.2397471666336060e-01 8.6016774177551270e-01</leafValues></_>
                    <_>
                        <internalNodes>
                            0 -1 128 2.7045237366110086e-03</internalNodes>
                        <leafValues>
                            -3.8930198550224304e-01 4.9242505431175232e-01</leafValues></_>
                    <_>
                        <internalNodes>
                            0 -1 155 -1.6399449668824673e-04</internalNodes>
                        <leafValues>
                            7.2701460123062134e-01 -3.1146138906478882e-01</leafValues></_>
                    <_>
                        <internalNodes>
                            0 -1 53 -2.9145086184144020e-02</internalNodes>
                        <leafValues>
                            -7.7107208967208862e-01 3.3799159526824951e-01</leafValues></_>
                    <_>
                        <internalNodes>
                            0 -1 4 2.5980555801652372e-04</internalNodes>
                        <leafValues>
                            -3.0960395932197571e-01 6.3879656791687012e-01</leafValues></_>
                    <_>
                        <internalNodes>
                            0 -1 162 -9.6272807568311691e-03</internalNodes>
                        <leafValues>
                            -5.8498889207839966e-01 3.2308939099311829e-01</leafValues></_></weakClassifiers></_>
            <!-- stage 19 -->
            <_>
                <maxWeakCount>5</maxWeakCount>
                <stageThreshold>-1.7495280504226685e+00</stageThreshold>
                <weakClassifiers>
                    <_>
                        <internalNodes>
                            0 -1 148 -1.0361995082348585e-03</internalNodes>
                        <leafValues>
                            1. -8.8679248094558716e-01</leafValues></_>
                    <_>
                        <internalNodes>
                            0 -1 56 3.9913896471261978e-03</internalNodes>
                        <leafValues>
                            -6.6690373420715332e-01 7.0980584621429443e-01</leafValues></_>
                    <_>
                        <internalNodes>
                            0 -1 106 5.1989103667438030e-04</internalNodes>
                        <leafValues>
                            5.8481866121292114e-01 -5.2517795562744141e-01</leafValues></_>
                    <_>
                        <internalNodes>
                            0 -1 71 -3.1368498457595706e-04</internalNodes>
                        <leafValues>
                            -4.5507240295410156e-01 6.4873826503753662e-01</leafValues></_>
                    <_>
                        <internalNodes>
                            0 -1 154 -8.3038595039397478e-04</internalNodes>
                        <leafValues>
                            9.4932532310485840e-01 -3.1939214468002319e-01</leafValues></_></weakClassifiers></_></stages>
        <features>
            <_>
                <rects>
                    <_>
                        0 2 3 6 -1.</_>
                    <_>
                        0 5 3 3 2.</_></rects>
                <tilted>0</tilted></_>
            <_>
                <rects>
                    <_>
                        0 4 4 3 -1.</_>
                    <_>
                        0 5 4 1 3.</_></rects>
                <tilted>0</tilted></_>
            <_>
                <rects>
                    <_>
                        0 5 2 3 -1.</_>
                    <_>
                        0 6 2 1 3.</_></rects>
                <tilted>0</tilted></_>
            <_>
                <rects>
                    <_>
                        0 6 9 14 -1.</_>
                    <_>
                        3 6 3 14 3.</_></rects>
                <tilted>0</tilted></_>
            <_>
                <rects>
                    <_>
                        0 9 2 2 -1.</_>
                    <_>
                        1 9 1 2 2.</_></rects>
                <tilted>0</tilted></_>
            <_>
                <rects>
                    <_>
                        0 12 8 10 -1.</_>
                    <_>
                        0 12 4 5 2.</_>
                    <_>
                        4 17 4 5 2.</_></rects>
                <tilted>0</tilted></_>
            <_>
                <rects>
                    <_>
                        0 13 2 3 -1.</_>
                    <_>
                        0 14 2 1 3.</_></rects>
                <tilted>0</tilted></_>
            <_>
                <rects>
                    <_>
                        0 17 2 1 -1.</_>
                    <_>
                        1 17 1 1 2.</_></rects>
                <tilted>0</tilted></_>
            <_>
                <rects>
                    <_>
                        0 19 1 3 -1.</_>
                    <_>
                        0 20 1 1 3.</_></rects>
                <tilted>0</tilted></_>
            <_>
                <rects>
                    <_>
                        0 21 24 2 -1.</_>
                    <_>
                        8 21 8 2 3.</_></rects>
                <tilted>0</tilted></_>
            <_>
                <rects>
                    <_>
                        0 22 1 2 -1.</_>
                    <_>
                        0 23 1 1 2.</_></rects>
                <tilted>0</tilted></_>
            <_>
                <rects>
                    <_>
                        1 1 6 7 -1.</_>
                    <_>
                        3 1 2 7 3.</_></rects>
                <tilted>0</tilted></_>
            <_>
                <rects>
                    <_>
                        1 7 8 9 -1.</_>
                    <_>
                        5 7 4 9 2.</_></rects>
                <tilted>0</tilted></_>
            <_>
                <rects>
                    <_>
                        1 8 6 16 -1.</_>
                    <_>
                        4 8 3 16 2.</_></rects>
                <tilted>0</tilted></_>
            <_>
                <rects>
                    <_>
                        1 9 1 2 -1.</_>
                    <_>
                        1 10 1 1 2.</_></rects>
                <tilted>0</tilted></_>
            <_>
                <rects>
                    <_>
                        1 11 4 6 -1.</_>
                    <_>
                        1 11 2 3 2.</_>
                    <_>
                        3 14 2 3 2.</_></rects>
                <tilted>0</tilted></_>
            <_>
                <rects>
                    <_>
                        1 12 4 9 -1.</_>
                    <_>
                        1 15 4 3 3.</_></rects>
                <tilted>0</tilted></_>
            <_>
                <rects>
                    <_>
                        1 14 3 2 -1.</_>
                    <_>
                        1 15 3 1 2.</_></rects>
                <tilted>0</tilted></_>
            <_>
                <rects>
                    <_>
                        1 17 2 2 -1.</_>
                    <_>
                        1 17 1 1 2.</_>
                    <_>
                        2 18 1 1 2.</_></rects>
                <tilted>0</tilted></_>
            <_>
                <rects>
                    <_>
                        1 19 12 4 -1.</_>
                    <_>
                        5 19 4 4 3.</_></rects>
                <tilted>0</tilted></_>
            <_>
                <rects>
                    <_>
                        2 0 1 2 -1.</_>
                    <_>
                        2 1 1 1 2.</_></rects>
                <tilted>0</tilted></_>
            <_>
                <rects>
                    <_>
                        2 2 4 22 -1.</_>
                    <_>
                        2 2 2 11 2.</_>
                    <_>
                        4 13 2 11 2.</_></rects>
                <tilted>0</tilted></_>
            <_>
                <rects>
                    <_>
                        2 5 6 16 -1.</_>
                    <_>
                        5 5 3 16 2.</_></rects>
                <tilted>0</tilted></_>
            <_>
                <rects>
                    <_>
                        2 7 6 14 -1.</_>
                    <_>
                        2 7 3 7 2.</_>
                    <_>
                        5 14 3 7 2.</_></rects>
                <tilted>0</tilted></_>
            <_>
                <rects>
                    <_>
                        2 7 14 12 -1.</_>
                    <_>
                        2 7 7 6 2.</_>
                    <_>
                        9 13 7 6 2.</_></rects>
                <tilted>0</tilted></_>
            <_>
                <rects>
                    <_>
                        2 8 6 16 -1.</_>
                    <_>
                        2 8 3 8 2.</_>
                    <_>
                        5 16 3 8 2.</_></rects>
                <tilted>0</tilted></_>
            <_>
                <rects>
                    <_>
                        2 21 3 3 -1.</_>
                    <_>
                        2 22 3 1 3.</_></rects>
                <tilted>0</tilted></_>
            <_>
                <rects>
                    <_>
                        2 22 21 1 -1.</_>
                    <_>
                        9 22 7 1 3.</_></rects>
                <tilted>0</tilted></_>
            <_>
                <rects>
                    <_>
                        3 0 20 1 -1.</_>
                    <_>
                        13 0 10 1 2.</_></rects>
                <tilted>0</tilted></_>
            <_>
                <rects>
                    <_>
                        3 2 11 2 -1.</_>
                    <_>
                        3 3 11 1 2.</_></rects>
                <tilted>0</tilted></_>
            <_>
                <rects>
                    <_>
                        3 3 9 2 -1.</_>
                    <_>
                        6 3 3 2 3.</_></rects>
                <tilted>0</tilted></_>
            <_>
                <rects>
                    <_>
                        3 4 20 9 -1.</_>
                    <_>
                        3 7 20 3 3.</_></rects>
                <tilted>0</tilted></_>
            <_>
                <rects>
                    <_>
                        3 5 18 1 -1.</_>
                    <_>
                        9 5 6 1 3.</_></rects>
                <tilted>0</tilted></_>
            <_>
                <rects>
                    <_>
                        3 8 6 5 -1.</_>
                    <_>
                        5 8 2 5 3.</_></rects>
                <tilted>0</tilted></_>
            <_>
                <rects>
                    <_>
                        3 9 6 4 -1.</_>
                    <_>
                        3 9 3 2 2.</_>
                    <_>
                        6 11 3 2 2.</_></rects>
                <tilted>0</tilted></_>
            <_>
                <rects>
                    <_>
                        3 9 6 13 -1.</_>
                    <_>
                        6 9 3 13 2.</_></rects>
                <tilted>0</tilted></_>
            <_>
                <rects>
                    <_>
                        3 13 6 2 -1.</_>
                    <_>
                        5 13 2 2 3.</_></rects>
                <tilted>0</tilted></_>
            <_>
                <rects>
                    <_>
                        3 15 16 2 -1.</_>
                    <_>
                        3 16 16 1 2.</_></rects>
                <tilted>0</tilted></_>
            <_>
                <rects>
                    <_>
                        3 17 4 6 -1.</_>
                    <_>
                        3 17 2 3 2.</_>
                    <_>
                        5 20 2 3 2.</_></rects>
                <tilted>0</tilted></_>
            <_>
                <rects>
                    <_>
                        3 18 9 1 -1.</_>
                    <_>
                        6 18 3 1 3.</_></rects>
                <tilted>0</tilted></_>
            <_>
                <rects>
                    <_>
                        3 21 9 3 -1.</_>
                    <_>
                        3 22 9 1 3.</_></rects>
                <tilted>0</tilted></_>
            <_>
                <rects>
                    <_>
                        4 0 8 6 -1.</_>
                    <_>
                        4 0 4 3 2.</_>
                    <_>
                        8 3 4 3 2.</_></rects>
                <tilted>0</tilted></_>
            <_>
                <rects>
                    <_>
                        4 0 11 12 -1.</_>
                    <_>
                        4 6 11 6 2.</_></rects>
                <tilted>0</tilted></_>
            <_>
                <rects>
                    <_>
                        4 1 10 2 -1.</_>
                    <_>
                        4 1 5 1 2.</_>
                    <_>
                        9 2 5 1 2.</_></rects>
                <tilted>0</tilted></_>
            <_>
                <rects>
                    <_>
                        4 1 16 5 -1.</_>
                    <_>
                        12 1 8 5 2.</_></rects>
                <tilted>0</tilted></_>
            <_>
                <rects>
                    <_>
                        4 1 17 6 -1.</_>
                    <_>
                        4 4 17 3 2.</_></rects>
                <tilted>0</tilted></_>
            <_>
                <rects>
                    <_>
                        4 1 17 8 -1.</_>
                    <_>
                        4 5 17 4 2.</_></rects>
                <tilted>0</tilted></_>
            <_>
                <rects>
                    <_>
                        4 6 7 3 -1.</_>
                    <_>
                        4 7 7 1 3.</_></rects>
                <tilted>0</tilted></_>
            <_>
                <rects>
                    <_>
                        4 9 7 12 -1.</_>
                    <_>
                        4 13 7 4 3.</_></rects>
                <tilted>0</tilted></_>
            <_>
                <rects>
                    <_>
                        4 12 3 3 -1.</_>
                    <_>
                        5 12 1 3 3.</_></rects>
                <tilted>0</tilted></_>
            <_>
                <rects>
                    <_>
                        4 13 9 5 -1.</_>
                    <_>
                        7 13 3 5 3.</_></rects>
                <tilted>0</tilted></_>
            <_>
                <rects>
                    <_>
                        4 19 6 3 -1.</_>
                    <_>
                        7 19 3 3 2.</_></rects>
                <tilted>0</tilted></_>
            <_>
                <rects>
                    <_>
                        4 22 11 2 -1.</_>
                    <_>
                        4 23 11 1 2.</_></rects>
                <tilted>0</tilted></_>
            <_>
                <rects>
                    <_>
                        5 1 4 9 -1.</_>
                    <_>
                        5 4 4 3 3.</_></rects>
                <tilted>0</tilted></_>
            <_>
                <rects>
                    <_>
                        5 3 12 16 -1.</_>
                    <_>
                        5 3 6 8 2.</_>
                    <_>
                        11 11 6 8 2.</_></rects>
                <tilted>0</tilted></_>
            <_>
                <rects>
                    <_>
                        5 6 6 8 -1.</_>
                    <_>
                        8 6 3 8 2.</_></rects>
                <tilted>0</tilted></_>
            <_>
                <rects>
                    <_>
                        5 8 9 3 -1.</_>
                    <_>
                        8 8 3 3 3.</_></rects>
                <tilted>0</tilted></_>
            <_>
                <rects>
                    <_>
                        5 8 15 4 -1.</_>
                    <_>
                        5 10 15 2 2.</_></rects>
                <tilted>0</tilted></_>
            <_>
                <rects>
                    <_>
                        5 11 4 10 -1.</_>
                    <_>
                        5 11 2 5 2.</_>
                    <_>
                        7 16 2 5 2.</_></rects>
                <tilted>0</tilted></_>
            <_>
                <rects>
                    <_>
                        5 15 2 6 -1.</_>
                    <_>
                        5 18 2 3 2.</_></rects>
                <tilted>0</tilted></_>
            <_>
                <rects>
                    <_>
                        5 18 1 2 -1.</_>
                    <_>
                        5 19 1 1 2.</_></rects>
                <tilted>0</tilted></_>
            <_>
                <rects>
                    <_>
                        6 0 18 18 -1.</_>
                    <_>
                        6 0 9 9 2.</_>
                    <_>
                        15 9 9 9 2.</_></rects>
                <tilted>0</tilted></_>
            <_>
                <rects>
                    <_>
                        6 2 3 2 -1.</_>
                    <_>
                        6 3 3 1 2.</_></rects>
                <tilted>0</tilted></_>
            <_>
                <rects>
                    <_>
                        6 5 2 5 -1.</_>
                    <_>
                        7 5 1 5 2.</_></rects>
                <tilted>0</tilted></_>
            <_>
                <rects>
                    <_>
                        6 6 15 9 -1.</_>
                    <_>
                        6 9 15 3 3.</_></rects>
                <tilted>0</tilted></_>
            <_>
                <rects>
                    <_>
                        6 7 2 2 -1.</_>
                    <_>
                        7 7 1 2 2.</_></rects>
                <tilted>0</tilted></_>
            <_>
                <rects>
                    <_>
                        6 8 3 6 -1.</_>
                    <_>
                        7 8 1 6 3.</_></rects>
                <tilted>0</tilted></_>
            <_>
                <rects>
                    <_>
                        6 9 6 8 -1.</_>
                    <_>
                        6 9 3 4 2.</_>
                    <_>
                        9 13 3 4 2.</_></rects>
                <tilted>0</tilted></_>
            <_>
                <rects>
                    <_>
                        6 10 2 8 -1.</_>
                    <_>
                        6 10 1 4 2.</_>
                    <_>
                        7 14 1 4 2.</_></rects>
                <tilted>0</tilted></_>
            <_>
                <rects>
                    <_>
                        6 15 9 9 -1.</_>
                    <_>
                        9 15 3 9 3.</_></rects>
                <tilted>0</tilted></_>
            <_>
                <rects>
                    <_>
                        6 16 18 4 -1.</_>
                    <_>
                        12 16 6 4 3.</_></rects>
                <tilted>0</tilted></_>
            <_>
                <rects>
                    <_>
                        7 0 2 16 -1.</_>
                    <_>
                        7 0 1 8 2.</_>
                    <_>
                        8 8 1 8 2.</_></rects>
                <tilted>0</tilted></_>
            <_>
                <rects>
                    <_>
                        7 0 16 2 -1.</_>
                    <_>
                        7 0 8 1 2.</_>
                    <_>
                        15 1 8 1 2.</_></rects>
                <tilted>0</tilted></_>
            <_>
                <rects>
                    <_>
                        7 0 11 6 -1.</_>
                    <_>
                        7 3 11 3 2.</_></rects>
                <tilted>0</tilted></_>
            <_>
                <rects>
                    <_>
                        7 6 2 6 -1.</_>
                    <_>
                        7 6 1 3 2.</_>
                    <_>
                        8 9 1 3 2.</_></rects>
                <tilted>0</tilted></_>
            <_>
                <rects>
                    <_>
                        7 8 6 10 -1.</_>
                    <_>
                        7 8 3 5 2.</_>
                    <_>
                        10 13 3 5 2.</_></rects>
                <tilted>0</tilted></_>
            <_>
                <rects>
                    <_>
                        7 9 11 6 -1.</_>
                    <_>
                        7 12 11 3 2.</_></rects>
                <tilted>0</tilted></_>
            <_>
                <rects>
                    <_>
                        8 3 6 12 -1.</_>
                    <_>
                        8 7 6 4 3.</_></rects>
                <tilted>0</tilted></_>
            <_>
                <rects>
                    <_>
                        8 4 1 3 -1.</_>
                    <_>
                        8 5 1 1 3.</_></rects>
                <tilted>0</tilted></_>
            <_>
                <rects>
                    <_>
                        8 13 4 1 -1.</_>
                    <_>
                        10 13 2 1 2.</_></rects>
                <tilted>0</tilted></_>
            <_>
                <rects>
                    <_>
                        8 17 6 3 -1.</_>
                    <_>
                        10 17 2 3 3.</_></rects>
                <tilted>0</tilted></_>
            <_>
                <rects>
                    <_>
                        8 17 6 2 -1.</_>
                    <_>
                        11 17 3 2 2.</_></rects>
                <tilted>0</tilted></_>
            <_>
                <rects>
                    <_>
                        8 22 3 2 -1.</_>
                    <_>
                        8 23 3 1 2.</_></rects>
                <tilted>0</tilted></_>
            <_>
                <rects>
                    <_>
                        9 0 4 3 -1.</_>
                    <_>
                        11 0 2 3 2.</_></rects>
                <tilted>0</tilted></_>
            <_>
                <rects>
                    <_>
                        9 0 14 22 -1.</_>
                    <_>
                        9 0 7 11 2.</_>
                    <_>
                        16 11 7 11 2.</_></rects>
                <tilted>0</tilted></_>
            <_>
                <rects>
                    <_>
                        9 14 2 2 -1.</_>
                    <_>
                        9 14 1 1 2.</_>
                    <_>
                        10 15 1 1 2.</_></rects>
                <tilted>0</tilted></_>
            <_>
                <rects>
                    <_>
                        9 15 3 9 -1.</_>
                    <_>
                        10 15 1 9 3.</_></rects>
                <tilted>0</tilted></_>
            <_>
                <rects>
                    <_>
                        9 18 15 5 -1.</_>
                    <_>
                        14 18 5 5 3.</_></rects>
                <tilted>0</tilted></_>
            <_>
                <rects>
                    <_>
                        10 1 1 4 -1.</_>
                    <_>
                        10 3 1 2 2.</_></rects>
                <tilted>0</tilted></_>
            <_>
                <rects>
                    <_>
                        10 2 6 1 -1.</_>
                    <_>
                        13 2 3 1 2.</_></rects>
                <tilted>0</tilted></_>
            <_>
                <rects>
                    <_>
                        10 4 12 20 -1.</_>
                    <_>
                        10 4 6 10 2.</_>
                    <_>
                        16 14 6 10 2.</_></rects>
                <tilted>0</tilted></_>
            <_>
                <rects>
                    <_>
                        10 10 6 8 -1.</_>
                    <_>
                        10 10 3 4 2.</_>
                    <_>
                        13 14 3 4 2.</_></rects>
                <tilted>0</tilted></_>
            <_>
                <rects>
                    <_>
                        10 16 9 4 -1.</_>
                    <_>
                        13 16 3 4 3.</_></rects>
                <tilted>0</tilted></_>
            <_>
                <rects>
                    <_>
                        11 0 4 6 -1.</_>
                    <_>
                        11 2 4 2 3.</_></rects>
                <tilted>0</tilted></_>
            <_>
                <rects>
                    <_>
                        11 0 8 6 -1.</_>
                    <_>
                        11 0 4 3 2.</_>
                    <_>
                        15 3 4 3 2.</_></rects>
                <tilted>0</tilted></_>
            <_>
                <rects>
                    <_>
                        11 1 4 6 -1.</_>
                    <_>
                        11 3 4 2 3.</_></rects>
                <tilted>0</tilted></_>
            <_>
                <rects>
                    <_>
                        11 4 12 6 -1.</_>
                    <_>
                        15 4 4 6 3.</_></rects>
                <tilted>0</tilted></_>
            <_>
                <rects>
                    <_>
                        11 7 9 10 -1.</_>
                    <_>
                        11 12 9 5 2.</_></rects>
                <tilted>0</tilted></_>
            <_>
                <rects>
                    <_>
                        11 10 1 8 -1.</_>
                    <_>
                        11 14 1 4 2.</_></rects>
                <tilted>0</tilted></_>
            <_>
                <rects>
                    <_>
                        11 10 6 8 -1.</_>
                    <_>
                        11 10 3 4 2.</_>
                    <_>
                        14 14 3 4 2.</_></rects>
                <tilted>0</tilted></_>
            <_>
                <rects>
                    <_>
                        11 10 8 8 -1.</_>
                    <_>
                        11 10 4 4 2.</_>
                    <_>
                        15 14 4 4 2.</_></rects>
                <tilted>0</tilted></_>
            <_>
                <rects>
                    <_>
                        11 13 8 6 -1.</_>
                    <_>
                        11 13 4 3 2.</_>
                    <_>
                        15 16 4 3 2.</_></rects>
                <tilted>0</tilted></_>
            <_>
                <rects>
                    <_>
                        11 15 1 2 -1.</_>
                    <_>
                        11 16 1 1 2.</_></rects>
                <tilted>0</tilted></_>
            <_>
                <rects>
                    <_>
                        12 1 6 22 -1.</_>
                    <_>
                        12 12 6 11 2.</_></rects>
                <tilted>0</tilted></_>
            <_>
                <rects>
                    <_>
                        12 7 12 17 -1.</_>
                    <_>
                        16 7 4 17 3.</_></rects>
                <tilted>0</tilted></_>
            <_>
                <rects>
                    <_>
                        12 9 4 4 -1.</_>
                    <_>
                        14 9 2 4 2.</_></rects>
                <tilted>0</tilted></_>
            <_>
                <rects>
                    <_>
                        12 9 6 7 -1.</_>
                    <_>
                        14 9 2 7 3.</_></rects>
                <tilted>0</tilted></_>
            <_>
                <rects>
                    <_>
                        12 19 2 3 -1.</_>
                    <_>
                        12 20 2 1 3.</_></rects>
                <tilted>0</tilted></_>
            <_>
                <rects>
                    <_>
                        12 19 2 4 -1.</_>
                    <_>
                        12 21 2 2 2.</_></rects>
                <tilted>0</tilted></_>
            <_>
                <rects>
                    <_>
                        13 0 9 10 -1.</_>
                    <_>
                        13 5 9 5 2.</_></rects>
                <tilted>0</tilted></_>
            <_>
                <rects>
                    <_>
                        13 4 9 15 -1.</_>
                    <_>
                        16 4 3 15 3.</_></rects>
                <tilted>0</tilted></_>
            <_>
                <rects>
                    <_>
                        13 7 10 15 -1.</_>
                    <_>
                        13 12 10 5 3.</_></rects>
                <tilted>0</tilted></_>
            <_>
                <rects>
                    <_>
                        13 8 3 6 -1.</_>
                    <_>
                        13 10 3 2 3.</_></rects>
                <tilted>0</tilted></_>
            <_>
                <rects>
                    <_>
                        13 9 10 6 -1.</_>
                    <_>
                        13 11 10 2 3.</_></rects>
                <tilted>0</tilted></_>
            <_>
                <rects>
                    <_>
                        13 16 3 1 -1.</_>
                    <_>
                        14 16 1 1 3.</_></rects>
                <tilted>0</tilted></_>
            <_>
                <rects>
                    <_>
                        13 16 4 3 -1.</_>
                    <_>
                        15 16 2 3 2.</_></rects>
                <tilted>0</tilted></_>
            <_>
                <rects>
                    <_>
                        13 18 3 4 -1.</_>
                    <_>
                        13 20 3 2 2.</_></rects>
                <tilted>0</tilted></_>
            <_>
                <rects>
                    <_>
                        14 0 6 1 -1.</_>
                    <_>
                        17 0 3 1 2.</_></rects>
                <tilted>0</tilted></_>
            <_>
                <rects>
                    <_>
                        14 4 1 9 -1.</_>
                    <_>
                        14 7 1 3 3.</_></rects>
                <tilted>0</tilted></_>
            <_>
                <rects>
                    <_>
                        14 5 10 18 -1.</_>
                    <_>
                        19 5 5 18 2.</_></rects>
                <tilted>0</tilted></_>
            <_>
                <rects>
                    <_>
                        14 7 6 14 -1.</_>
                    <_>
                        17 7 3 14 2.</_></rects>
                <tilted>0</tilted></_>
            <_>
                <rects>
                    <_>
                        14 7 10 4 -1.</_>
                    <_>
                        14 7 5 2 2.</_>
                    <_>
                        19 9 5 2 2.</_></rects>
                <tilted>0</tilted></_>
            <_>
                <rects>
                    <_>
                        14 9 2 2 -1.</_>
                    <_>
                        14 10 2 1 2.</_></rects>
                <tilted>0</tilted></_>
            <_>
                <rects>
                    <_>
                        14 20 9 4 -1.</_>
                    <_>
                        17 20 3 4 3.</_></rects>
                <tilted>0</tilted></_>
            <_>
                <rects>
                    <_>
                        14 22 2 2 -1.</_>
                    <_>
                        14 22 1 1 2.</_>
                    <_>
                        15 23 1 1 2.</_></rects>
                <tilted>0</tilted></_>
            <_>
                <rects>
                    <_>
                        15 1 8 2 -1.</_>
                    <_>
                        15 1 4 1 2.</_>
                    <_>
                        19 2 4 1 2.</_></rects>
                <tilted>0</tilted></_>
            <_>
                <rects>
                    <_>
                        15 6 2 9 -1.</_>
                    <_>
                        15 9 2 3 3.</_></rects>
                <tilted>0</tilted></_>
            <_>
                <rects>
                    <_>
                        15 8 9 9 -1.</_>
                    <_>
                        15 11 9 3 3.</_></rects>
                <tilted>0</tilted></_>
            <_>
                <rects>
                    <_>
                        15 10 7 6 -1.</_>
                    <_>
                        15 13 7 3 2.</_></rects>
                <tilted>0</tilted></_>
            <_>
                <rects>
                    <_>
                        15 12 6 4 -1.</_>
                    <_>
                        18 12 3 4 2.</_></rects>
                <tilted>0</tilted></_>
            <_>
                <rects>
                    <_>
                        15 12 6 5 -1.</_>
                    <_>
                        18 12 3 5 2.</_></rects>
                <tilted>0</tilted></_>
            <_>
                <rects>
                    <_>
                        15 23 6 1 -1.</_>
                    <_>
                        18 23 3 1 2.</_></rects>
                <tilted>0</tilted></_>
            <_>
                <rects>
                    <_>
                        16 0 4 11 -1.</_>
                    <_>
                        18 0 2 11 2.</_></rects>
                <tilted>0</tilted></_>
            <_>
                <rects>
                    <_>
                        16 0 8 14 -1.</_>
                    <_>
                        16 0 4 7 2.</_>
                    <_>
                        20 7 4 7 2.</_></rects>
                <tilted>0</tilted></_>
            <_>
                <rects>
                    <_>
                        16 2 3 10 -1.</_>
                    <_>
                        16 7 3 5 2.</_></rects>
                <tilted>0</tilted></_>
            <_>
                <rects>
                    <_>
                        16 5 8 5 -1.</_>
                    <_>
                        20 5 4 5 2.</_></rects>
                <tilted>0</tilted></_>
            <_>
                <rects>
                    <_>
                        16 5 8 9 -1.</_>
                    <_>
                        16 8 8 3 3.</_></rects>
                <tilted>0</tilted></_>
            <_>
                <rects>
                    <_>
                        16 21 8 3 -1.</_>
                    <_>
                        16 22 8 1 3.</_></rects>
                <tilted>0</tilted></_>
            <_>
                <rects>
                    <_>
                        17 2 2 4 -1.</_>
                    <_>
                        17 2 1 2 2.</_>
                    <_>
                        18 4 1 2 2.</_></rects>
                <tilted>0</tilted></_>
            <_>
                <rects>
                    <_>
                        17 3 4 1 -1.</_>
                    <_>
                        19 3 2 1 2.</_></rects>
                <tilted>0</tilted></_>
            <_>
                <rects>
                    <_>
                        17 8 3 4 -1.</_>
                    <_>
                        18 8 1 4 3.</_></rects>
                <tilted>0</tilted></_>
            <_>
                <rects>
                    <_>
                        17 9 2 6 -1.</_>
                    <_>
                        17 9 1 3 2.</_>
                    <_>
                        18 12 1 3 2.</_></rects>
                <tilted>0</tilted></_>
            <_>
                <rects>
                    <_>
                        17 12 2 2 -1.</_>
                    <_>
                        18 12 1 2 2.</_></rects>
                <tilted>0</tilted></_>
            <_>
                <rects>
                    <_>
                        18 0 6 1 -1.</_>
                    <_>
                        21 0 3 1 2.</_></rects>
                <tilted>0</tilted></_>
            <_>
                <rects>
                    <_>
                        18 1 2 1 -1.</_>
                    <_>
                        19 1 1 1 2.</_></rects>
                <tilted>0</tilted></_>
            <_>
                <rects>
                    <_>
                        18 1 2 16 -1.</_>
                    <_>
                        18 1 1 8 2.</_>
                    <_>
                        19 9 1 8 2.</_></rects>
                <tilted>0</tilted></_>
            <_>
                <rects>
                    <_>
                        19 0 2 1 -1.</_>
                    <_>
                        20 0 1 1 2.</_></rects>
                <tilted>0</tilted></_>
            <_>
                <rects>
                    <_>
                        19 0 4 8 -1.</_>
                    <_>
                        19 0 2 4 2.</_>
                    <_>
                        21 4 2 4 2.</_></rects>
                <tilted>0</tilted></_>
            <_>
                <rects>
                    <_>
                        19 2 2 8 -1.</_>
                    <_>
                        19 2 1 4 2.</_>
                    <_>
                        20 6 1 4 2.</_></rects>
                <tilted>0</tilted></_>
            <_>
                <rects>
                    <_>
                        19 8 3 5 -1.</_>
                    <_>
                        20 8 1 5 3.</_></rects>
                <tilted>0</tilted></_>
            <_>
                <rects>
                    <_>
                        20 1 2 2 -1.</_>
                    <_>
                        20 1 1 1 2.</_>
                    <_>
                        21 2 1 1 2.</_></rects>
                <tilted>0</tilted></_>
            <_>
                <rects>
                    <_>
                        20 2 3 18 -1.</_>
                    <_>
                        20 8 3 6 3.</_></rects>
                <tilted>0</tilted></_>
            <_>
                <rects>
                    <_>
                        20 7 4 4 -1.</_>
                    <_>
                        22 7 2 4 2.</_></rects>
                <tilted>0</tilted></_>
            <_>
                <rects>
                    <_>
                        20 7 4 8 -1.</_>
                    <_>
                        22 7 2 8 2.</_></rects>
                <tilted>0</tilted></_>
            <_>
                <rects>
                    <_>
                        20 12 4 2 -1.</_>
                    <_>
                        22 12 2 2 2.</_></rects>
                <tilted>0</tilted></_>
            <_>
                <rects>
                    <_>
                        20 17 3 4 -1.</_>
                    <_>
                        21 17 1 4 3.</_></rects>
                <tilted>0</tilted></_>
            <_>
                <rects>
                    <_>
                        20 21 3 3 -1.</_>
                    <_>
                        20 22 3 1 3.</_></rects>
                <tilted>0</tilted></_>
            <_>
                <rects>
                    <_>
                        21 3 2 10 -1.</_>
                    <_>
                        21 3 1 5 2.</_>
                    <_>
                        22 8 1 5 2.</_></rects>
                <tilted>0</tilted></_>
            <_>
                <rects>
                    <_>
                        21 11 1 3 -1.</_>
                    <_>
                        21 12 1 1 3.</_></rects>
                <tilted>0</tilted></_>
            <_>
                <rects>
                    <_>
                        22 1 1 3 -1.</_>
                    <_>
                        22 2 1 1 3.</_></rects>
                <tilted>0</tilted></_>
            <_>
                <rects>
                    <_>
                        22 2 1 3 -1.</_>
                    <_>
                        22 3 1 1 3.</_></rects>
                <tilted>0</tilted></_>
            <_>
                <rects>
                    <_>
                        23 1 1 2 -1.</_>
                    <_>
                        23 2 1 1 2.</_></rects>
                <tilted>0</tilted></_>
            <_>
                <rects>
                    <_>
                        23 1 1 16 -1.</_>
                    <_>
                        23 9 1 8 2.</_></rects>
                <tilted>0</tilted></_></features></cascade>
</opencv_storage>
